svm_type c_svc
kernel_type rbf
gamma 1.1144544745347152E-4
nr_class 2
total_sv 2
rho 0.0
label 1 -1
nr_sv 1 1
SV
1.0 2:1.0 3:1.0 4:1.0 7:1.0 8:1.0 10:1.0 11:1.0 13:1.0 14:1.0 15:1.0 16:1.0 17:1.0 18:1.0 19:1.0 20:1.0 21:1.0 22:1.0 23:1.0 25:1.0 26:1.0 27:1.0 28:1.0 31:1.0 32:1.0 38:1.0 39:1.0 40:1.0 41:1.0 42:1.0 43:1.0 44:1.0 45:1.0 46:1.0 47:1.0 49:1.0 50:1.0 51:1.0 52:1.0 55:1.0 56:1.0 57:1.0 58:1.0 61:1.0 62:1.0 63:1.0 67:1.0 68:1.0 73:1.0 74:1.0 75:1.0 76:1.0 77:1.0 78:1.0 79:1.0 80:1.0 81:1.0 82:1.0 83:1.0 84:1.0 85:1.0 86:1.0 87:1.0 88:1.0 91:1.0 92:1.0 93:1.0 97:1.0 98:1.0 99:1.0 103:1.0 104:1.0 109:1.0 110:1.0 111:1.0 115:1.0 116:1.0 121:1.0 122:1.0 123:1.0 127:1.0 128:1.0 129:1.0 133:1.0 134:1.0 140:1.0 146:1.0 147:1.0 152:1.0 218:1.0 219:1.0 253:1.0 254:1.0 255:1.0 331:1.0 338:1.0 339:1.0 340:1.0 343:1.0 344:1.0 345:1.0 350:1.0 365:1.0 369:1.0 370:1.0 371:1.0 374:1.0 375:1.0 376:1.0 377:1.0 378:1.0 380:1.0 381:1.0 382:1.0 383:1.0 384:1.0 386:1.0 387:1.0 388:1.0 389:1.0 392:1.0 394:1.0 400:1.0 401:1.0 402:1.0 404:1.0 405:1.0 406:1.0 407:1.0 408:1.0 410:1.0 411:1.0 412:1.0 413:1.0 415:1.0 416:1.0 417:1.0 418:1.0 421:1.0 422:1.0 423:1.0 427:1.0 428:1.0 437:1.0 440:1.0 441:1.0 442:1.0 443:1.0 444:1.0 446:1.0 447:1.0 448:1.0 449:1.0 452:1.0 453:1.0 454:1.0 457:1.0 458:1.0 459:1.0 463:1.0 464:1.0 465:1.0 482:1.0 730:1.0 731:1.0 735:1.0 736:1.0 737:1.0 738:1.0 740:1.0 741:1.0 742:1.0 743:1.0 744:1.0 746:1.0 747:1.0 748:1.0 749:1.0 751:1.0 752:1.0 753:1.0 754:1.0 760:1.0 765:1.0 766:1.0 767:1.0 768:1.0 770:1.0 771:1.0 772:1.0 773:1.0 774:1.0 776:1.0 777:1.0 778:1.0 779:1.0 781:1.0 782:1.0 783:1.0 784:1.0 788:1.0 796:1.0 797:1.0 798:1.0 801:1.0 802:1.0 803:1.0 804:1.0 806:1.0 807:1.0 808:1.0 809:1.0 812:1.0 813:1.0 814:1.0 815:1.0 817:1.0 818:1.0 819:1.0 824:1.0 825:1.0 1083:1.0 1084:1.0 1085:1.0 1086:1.0 1088:1.0 1089:1.0 1090:1.0 1091:1.0 1092:1.0 1093:1.0 1094:1.0 1095:1.0 1096:1.0 1097:1.0 1098:1.0 1099:1.0 1100:1.0 1101:1.0 1102:1.0 1103:1.0 1106:1.0 1119:1.0 1120:1.0 1121:1.0 1122:1.0 1123:1.0 1124:1.0 1125:1.0 1126:1.0 1127:1.0 1128:1.0 1129:1.0 1130:1.0 1131:1.0 1132:1.0 1133:1.0 1135:1.0 1136:1.0 1137:1.0 1138:1.0 1141:1.0 1142:1.0 1143:1.0 1147:1.0 1148:1.0 1149:1.0 1155:1.0 1156:1.0 1157:1.0 1160:1.0 1161:1.0 1162:1.0 1163:1.0 1164:1.0 1165:1.0 1166:1.0 1167:1.0 1168:1.0 1169:1.0 1171:1.0 1172:1.0 1173:1.0 1174:1.0 1177:1.0 1178:1.0 1179:1.0 1183:1.0 1184:1.0 1191:1.0 1229:1.0 1443:1.0 1444:1.0 1445:1.0 1446:1.0 1447:1.0 1448:1.0 1449:1.0 1450:1.0 1451:1.0 1452:1.0 1454:1.0 1455:1.0 1456:1.0 1459:1.0 1460:1.0 1461:1.0 1466:1.0 1479:1.0 1480:1.0 1481:1.0 1482:1.0 1484:1.0 1485:1.0 1486:1.0 1487:1.0 1488:1.0 1489:1.0 1490:1.0 1491:1.0 1492:1.0 1493:1.0 1495:1.0 1496:1.0 1497:1.0 1498:1.0 1501:1.0 1502:1.0 1503:1.0 1507:1.0 1508:1.0 1516:1.0 1517:1.0 1521:1.0 1522:1.0 1523:1.0 1524:1.0 1526:1.0 1527:1.0 1528:1.0 1529:1.0 1531:1.0 1532:1.0 1533:1.0 1534:1.0 1537:1.0 1538:1.0 1539:1.0 1543:1.0 1544:1.0 1545:1.0 1808:1.0 1809:1.0 1810:1.0 1811:1.0 1812:1.0 1813:1.0 1814:1.0 1815:1.0 1819:1.0 1820:1.0 1821:1.0 1825:1.0 1826:1.0 1831:1.0 1832:1.0 1842:1.0 1845:1.0 1846:1.0 1847:1.0 1848:1.0 1850:1.0 1851:1.0 1852:1.0 1853:1.0 1856:1.0 1857:1.0 1858:1.0 1861:1.0 1862:1.0 1863:1.0 1868:1.0 1881:1.0 1882:1.0 1883:1.0 1884:1.0 1887:1.0 1888:1.0 1889:1.0 1890:1.0 1892:1.0 1893:1.0 1894:1.0 1895:1.0 1898:1.0 1899:1.0 1900:1.0 1904:1.0 1905:1.0 2161:1.0 2162:1.0 2163:1.0 2164:1.0 2165:1.0 2167:1.0 2168:1.0 2169:1.0 2170:1.0 2171:1.0 2172:1.0 2173:1.0 2174:1.0 2175:1.0 2176:1.0 2177:1.0 2178:1.0 2179:1.0 2180:1.0 2181:1.0 2182:1.0 2183:1.0 2184:1.0 2185:1.0 2186:1.0 2187:1.0 2188:1.0 2189:1.0 2192:1.0 2193:1.0 2197:1.0 2198:1.0 2199:1.0 2200:1.0 2203:1.0 2204:1.0 2205:1.0 2206:1.0 2207:1.0 2208:1.0 2209:1.0 2210:1.0 2211:1.0 2212:1.0 2213:1.0 2215:1.0 2216:1.0 2217:1.0 2221:1.0 2222:1.0 2223:1.0 2227:1.0 2228:1.0 2235:1.0 2236:1.0 2239:1.0 2245:1.0 2248:1.0 2249:1.0 2251:1.0 2254:1.0 2257:1.0 2275:1.0 2347:1.0 2377:1.0 2378:1.0 2380:1.0 2413:1.0 2414:1.0 2415:1.0 2416:1.0 2450:1.0 2451:1.0 2452:1.0 2455:1.0 2456:1.0 2461:1.0 2485:1.0 2486:1.0 2487:1.0 2488:1.0 2489:1.0 2491:1.0 2492:1.0 2497:1.0 2524:1.0 2525:1.0 2526:1.0 2528:1.0 2529:1.0 2530:1.0 2531:1.0 2532:1.0 2534:1.0 2535:1.0 2536:1.0 2537:1.0 2538:1.0 2540:1.0 2541:1.0 2542:1.0 2543:1.0 2544:1.0 2546:1.0 2547:1.0 2548:1.0 2549:1.0 2552:1.0 2553:1.0 2554:1.0 2561:1.0 2562:1.0 2565:1.0 2566:1.0 2567:1.0 2568:1.0 2570:1.0 2571:1.0 2572:1.0 2573:1.0 2574:1.0 2576:1.0 2577:1.0 2578:1.0 2582:1.0 2583:1.0 2588:1.0 2598:1.0 2601:1.0 2602:1.0 2606:1.0 2607:1.0 2608:1.0 2612:1.0 2613:1.0 2618:1.0 2619:1.0 2634:1.0 2670:1.0 2676:1.0 2706:1.0 2711:1.0 2712:1.0 2741:1.0 2742:1.0 2747:1.0 2776:1.0 2778:1.0 2782:1.0 2783:1.0 2784:1.0 2813:1.0 2814:1.0 2819:1.0 2820:1.0 2849:1.0 2850:1.0 2853:1.0 2854:1.0 2855:1.0 2856:1.0 2861:1.0 2862:1.0 2883:1.0 2884:1.0 2885:1.0 2886:1.0 2888:1.0 2889:1.0 2890:1.0 2891:1.0 2892:1.0 2894:1.0 2895:1.0 2896:1.0 2897:1.0 2898:1.0 2900:1.0 2901:1.0 2902:1.0 2903:1.0 2904:1.0 2905:1.0 2906:1.0 2918:1.0 2920:1.0 2921:1.0 2922:1.0 2924:1.0 2925:1.0 2926:1.0 2927:1.0 2928:1.0 2929:1.0 2930:1.0 2931:1.0 2932:1.0 2933:1.0 2935:1.0 2936:1.0 2937:1.0 2938:1.0 2941:1.0 2942:1.0 2943:1.0 2947:1.0 2948:1.0 2953:1.0 2954:1.0 2955:1.0 2956:1.0 2957:1.0 2958:1.0 2960:1.0 2961:1.0 2962:1.0 2963:1.0 2964:1.0 2966:1.0 2967:1.0 2968:1.0 2969:1.0 2971:1.0 2972:1.0 2973:1.0 2974:1.0 2977:1.0 2978:1.0 2979:1.0 2983:1.0 2984:1.0 2990:1.0 2991:1.0 2992:1.0 2993:1.0 2994:1.0 2996:1.0 2997:1.0 2998:1.0 2999:1.0 3003:1.0 3025:1.0 3026:1.0 3027:1.0 3028:1.0 3030:1.0 3034:1.0 3035:1.0 3062:1.0 3063:1.0 3064:1.0 3065:1.0 3066:1.0 3069:1.0 3070:1.0 3071:1.0 3072:1.0 3074:1.0 3075:1.0 3081:1.0 3099:1.0 3100:1.0 3101:1.0 3102:1.0 3105:1.0 3106:1.0 3135:1.0 3136:1.0 3137:1.0 3138:1.0 3141:1.0 3143:1.0 3171:1.0 3172:1.0 3173:1.0 3174:1.0 3177:1.0 3178:1.0 3179:1.0 3180:1.0 3185:1.0 3207:1.0 3208:1.0 3209:1.0 3210:1.0 3215:1.0 3216:1.0 3220:1.0 3221:1.0 3222:1.0 3242:1.0 3243:1.0 3244:1.0 3245:1.0 3246:1.0 3247:1.0 3248:1.0 3249:1.0 3250:1.0 3251:1.0 3252:1.0 3253:1.0 3254:1.0 3255:1.0 3256:1.0 3257:1.0 3258:1.0 3259:1.0 3260:1.0 3261:1.0 3262:1.0 3263:1.0 3266:1.0 3267:1.0 3272:1.0 3278:1.0 3279:1.0 3280:1.0 3281:1.0 3282:1.0 3283:1.0 3284:1.0 3285:1.0 3286:1.0 3287:1.0 3289:1.0 3290:1.0 3291:1.0 3292:1.0 3293:1.0 3295:1.0 3296:1.0 3297:1.0 3298:1.0 3301:1.0 3302:1.0 3303:1.0 3307:1.0 3308:1.0 3314:1.0 3315:1.0 3316:1.0 3317:1.0 3318:1.0 3319:1.0 3320:1.0 3321:1.0 3322:1.0 3323:1.0 3325:1.0 3326:1.0 3327:1.0 3328:1.0 3329:1.0 3330:1.0 3331:1.0 3332:1.0 3333:1.0 3334:1.0 3337:1.0 3338:1.0 3339:1.0 3340:1.0 3343:1.0 3344:1.0 3350:1.0 3351:1.0 3356:1.0 3357:1.0 3358:1.0 3361:1.0 3362:1.0 3363:1.0 3364:1.0 3368:1.0 3386:1.0 3387:1.0 3388:1.0 3389:1.0 3390:1.0 3392:1.0 3393:1.0 3394:1.0 3395:1.0 3398:1.0 3399:1.0 3422:1.0 3423:1.0 3424:1.0 3425:1.0 3426:1.0 3428:1.0 3429:1.0 3430:1.0 3431:1.0 3459:1.0 3460:1.0 3461:1.0 3462:1.0 3464:1.0 3494:1.0 3495:1.0 3496:1.0 3497:1.0 3498:1.0 3501:1.0 3530:1.0 3531:1.0 3532:1.0 3533:1.0 3534:1.0 3536:1.0 3537:1.0 3538:1.0 3539:1.0 3540:1.0 3543:1.0 3567:1.0 3569:1.0 3570:1.0 3572:1.0 3573:1.0 3574:1.0 3575:1.0 3576:1.0 3578:1.0 3579:1.0 3580:1.0 3581:1.0 3582:1.0 3584:1.0 3611:1.0 3612:1.0 3616:1.0 3645:1.0 3646:1.0 3647:1.0 3648:1.0 3650:1.0 3651:1.0 3652:1.0 3653:1.0 3656:1.0 3657:1.0 3658:1.0 3662:1.0 3663:1.0 3668:1.0 3681:1.0 3682:1.0 3683:1.0 3684:1.0 3686:1.0 3687:1.0 3688:1.0 3689:1.0 3690:1.0 3692:1.0 3693:1.0 3694:1.0 3695:1.0 3698:1.0 3699:1.0 3700:1.0 3704:1.0 3705:1.0 3962:1.0 3963:1.0 3967:1.0 3968:1.0 3969:1.0 3970:1.0 3971:1.0 3972:1.0 3973:1.0 3974:1.0 3975:1.0 3976:1.0 3977:1.0 3979:1.0 3980:1.0 3981:1.0 3982:1.0 3985:1.0 3986:1.0 3987:1.0 3988:1.0 3991:1.0 3992:1.0 3993:1.0 3999:1.0 4002:1.0 4004:1.0 4005:1.0 4006:1.0 4007:1.0 4008:1.0 4009:1.0 4010:1.0 4011:1.0 4012:1.0 4013:1.0 4015:1.0 4016:1.0 4017:1.0 4018:1.0 4021:1.0 4022:1.0 4023:1.0 4027:1.0 4028:1.0 4039:1.0 4041:1.0 4042:1.0 4043:1.0 4044:1.0 4046:1.0 4047:1.0 4048:1.0 4049:1.0 4050:1.0 4052:1.0 4053:1.0 4054:1.0 4057:1.0 4058:1.0 4059:1.0 4064:1.0 4291:1.0 4292:1.0 4293:1.0 4299:1.0 4322:1.0 4323:1.0 4324:1.0 4325:1.0 4326:1.0 4329:1.0 4330:1.0 4331:1.0 4332:1.0 4334:1.0 4335:1.0 4336:1.0 4337:1.0 4338:1.0 4340:1.0 4341:1.0 4342:1.0 4343:1.0 4344:1.0 4346:1.0 4347:1.0 4348:1.0 4349:1.0 4352:1.0 4353:1.0 4354:1.0 4359:1.0 4361:1.0 4362:1.0 4365:1.0 4366:1.0 4367:1.0 4368:1.0 4373:1.0 4374:1.0 4379:1.0 4380:1.0 4382:1.0 4383:1.0 4384:1.0 4388:1.0 4389:1.0 4396:1.0 4397:1.0 4398:1.0 4431:1.0 4433:1.0 4434:1.0 4466:1.0 4468:1.0 4469:1.0 4470:1.0 4475:1.0 4476:1.0 4502:1.0 4504:1.0 4505:1.0 4506:1.0 4508:1.0 4510:1.0 4511:1.0 4512:1.0 4540:1.0 4541:1.0 4542:1.0 4544:1.0 4546:1.0 4547:1.0 4551:1.0 4576:1.0 4577:1.0 4578:1.0 4580:1.0 4581:1.0 4582:1.0 4583:1.0 4584:1.0 4587:1.0 4588:1.0 4589:1.0 4592:1.0 4593:1.0 4594:1.0 4612:1.0 4613:1.0 4614:1.0 4616:1.0 4617:1.0 4618:1.0 4619:1.0 4620:1.0 4622:1.0 4623:1.0 4624:1.0 4625:1.0 4628:1.0 4629:1.0 4630:1.0 4646:1.0 4647:1.0 4648:1.0 4649:1.0 4650:1.0 4653:1.0 4654:1.0 4655:1.0 4656:1.0 4658:1.0 4659:1.0 4660:1.0 4661:1.0 4662:1.0 4664:1.0 4665:1.0 4666:1.0 4667:1.0 4692:1.0 4697:1.0 4698:1.0 4702:1.0 4703:1.0 4704:1.0 4708:1.0 4709:1.0 5056:1.0 5057:1.0 5058:1.0 5062:1.0 5063:1.0 5064:1.0 5068:1.0 5069:1.0 5074:1.0 5445:1.0 5446:1.0 5447:1.0 5448:1.0 5451:1.0 5452:1.0 5453:1.0 5456:1.0 5457:1.0 5462:1.0 5463:1.0 5468:1.0 5481:1.0 5482:1.0 5483:1.0 5484:1.0 5487:1.0 5488:1.0 5489:1.0 5490:1.0 5492:1.0 5493:1.0 5494:1.0 5498:1.0 5499:1.0 5504:1.0 5770:1.0 5771:1.0 5775:1.0 5776:1.0 5780:1.0 5781:1.0 5786:1.0 5787:1.0 5792:1.0 5804:1.0 5805:1.0 5806:1.0 5807:1.0 5808:1.0 5810:1.0 5811:1.0 5812:1.0 5813:1.0 5815:1.0 5816:1.0 5817:1.0 5818:1.0 5821:1.0 5822:1.0 5823:1.0 5827:1.0 5828:1.0 5837:1.0 5840:1.0 5841:1.0 5842:1.0 5843:1.0 5844:1.0 5845:1.0 5846:1.0 5847:1.0 5848:1.0 5849:1.0 5851:1.0 5852:1.0 5853:1.0 5857:1.0 5858:1.0 5859:1.0 5864:1.0 6134:1.0 6135:1.0 6136:1.0 6137:1.0 6138:1.0 6140:1.0 6141:1.0 6142:1.0 6143:1.0 6144:1.0 6146:1.0 6147:1.0 6148:1.0 6149:1.0 6152:1.0 6153:1.0 6154:1.0 6166:1.0 6167:1.0 6171:1.0 6172:1.0 6176:1.0 6177:1.0 6182:1.0 6183:1.0 6188:1.0 6208:1.0 6213:1.0 6218:1.0 6492:1.0 6497:1.0 6498:1.0 6502:1.0 6503:1.0 6504:1.0 6507:1.0 6508:1.0 6509:1.0 6513:1.0 6514:1.0 6856:1.0 6857:1.0 6858:1.0 6861:1.0 6862:1.0 6863:1.0 6864:1.0 6866:1.0 6867:1.0 6868:1.0 6869:1.0 6872:1.0 6873:1.0 7210:1.0 7211:1.0 7212:1.0 7215:1.0 7216:1.0 7220:1.0 7221:1.0 7226:1.0 7241:1.0 7242:1.0 7244:1.0 7245:1.0 7246:1.0 7247:1.0 7248:1.0 7250:1.0 7251:1.0 7252:1.0 7253:1.0 7255:1.0 7256:1.0 7257:1.0 7258:1.0 7261:1.0 7262:1.0 7263:1.0 7267:1.0 7268:1.0 7281:1.0 7282:1.0 7283:1.0 7284:1.0 7286:1.0 7287:1.0 7288:1.0 7289:1.0 7292:1.0 7293:1.0 7294:1.0 7298:1.0 7299:1.0 7303:1.0 7304:1.0 7605:1.0 7606:1.0 7607:1.0 7608:1.0 7610:1.0 7611:1.0 7612:1.0 7613:1.0 7614:1.0 7616:1.0 7617:1.0 7618:1.0 7622:1.0 7623:1.0 7627:1.0 7628:1.0 7641:1.0 7642:1.0 7643:1.0 7644:1.0 7646:1.0 7647:1.0 7648:1.0 7649:1.0 7652:1.0 7653:1.0 7654:1.0 7657:1.0 7658:1.0 7659:1.0 7664:1.0 7931:1.0 7932:1.0 7935:1.0 7936:1.0 7937:1.0 7938:1.0 7940:1.0 7941:1.0 7942:1.0 7943:1.0 7944:1.0 7946:1.0 7947:1.0 7948:1.0 7949:1.0 7952:1.0 7953:1.0 7954:1.0 7966:1.0 7967:1.0 7968:1.0 7971:1.0 7972:1.0 7973:1.0 7976:1.0 7977:1.0 7978:1.0 7982:1.0 7983:1.0 7988:1.0 8002:1.0 8003:1.0 8007:1.0 8012:1.0 8013:1.0 8018:1.0 8290:1.0 8291:1.0 8292:1.0 8295:1.0 8296:1.0 8297:1.0 8298:1.0 8300:1.0 8301:1.0 8302:1.0 8303:1.0 8304:1.0 8306:1.0 8307:1.0 8308:1.0 8312:1.0 8313:1.0 8322:1.0 8325:1.0 8326:1.0 8327:1.0 8328:1.0 8330:1.0 8331:1.0 8332:1.0 8333:1.0 8334:1.0 8336:1.0 8337:1.0 8338:1.0 8339:1.0 8342:1.0 8343:1.0 8362:1.0 8363:1.0 8364:1.0 8367:1.0 8368:1.0 8369:1.0 8372:1.0 8373:1.0 8374:1.0 8378:1.0 8379:1.0 8384:1.0 8650:1.0 8656:1.0 8660:1.0 8661:1.0 8662:1.0 8666:1.0 8667:1.0 8668:1.0 8672:1.0 8673:1.0 8681:1.0 8682:1.0 8685:1.0 8686:1.0 8687:1.0 8688:1.0 8690:1.0 8691:1.0 8692:1.0 8693:1.0 8696:1.0 8697:1.0 8698:1.0 8702:1.0 8703:1.0 8707:1.0 8708:1.0 8718:1.0 8721:1.0 8722:1.0 8723:1.0 8724:1.0 8725:1.0 8726:1.0 8727:1.0 8728:1.0 8729:1.0 8731:1.0 8732:1.0 8733:1.0 8734:1.0 8737:1.0 8738:1.0 8739:1.0 8743:1.0 8744:1.0 
-1.0 40:1.0 41:1.0 42:1.0 77:1.0 78:1.0 329:1.0 330:1.0 362:1.0 363:1.0 364:1.0 365:1.0 368:1.0 369:1.0 398:1.0 399:1.0 400:1.0 401:1.0 402:1.0 435:1.0 436:1.0 437:1.0 438:1.0 473:1.0 474:1.0 509:1.0 510:1.0 581:1.0 650:1.0 686:1.0 687:1.0 692:1.0 693:1.0 724:1.0 725:1.0 728:1.0 729:1.0 759:1.0 760:1.0 761:1.0 764:1.0 765:1.0 770:1.0 796:1.0 797:1.0 833:1.0 869:1.0 941:1.0 1084:1.0 1085:1.0 1088:1.0 1119:1.0 1120:1.0 1121:1.0 1124:1.0 1125:1.0 1130:1.0 1156:1.0 1157:1.0 1193:1.0 1229:1.0 1301:1.0 1441:1.0 1442:1.0 1443:1.0 1447:1.0 1448:1.0 1477:1.0 1478:1.0 1479:1.0 1480:1.0 1481:1.0 1483:1.0 1484:1.0 1485:1.0 1489:1.0 1495:1.0 1513:1.0 1514:1.0 1515:1.0 1516:1.0 1517:1.0 1552:1.0 1553:1.0 1730:1.0 1765:1.0 1766:1.0 1767:1.0 1771:1.0 1772:1.0 1803:1.0 1804:1.0 1805:1.0 1806:1.0 1839:1.0 1840:1.0 1841:1.0 1842:1.0 1877:1.0 1878:1.0 1913:1.0 1949:1.0 2128:1.0 2129:1.0 2130:1.0 2162:1.0 2163:1.0 2164:1.0 2165:1.0 2166:1.0 2168:1.0 2169:1.0 2170:1.0 2171:1.0 2198:1.0 2199:1.0 2200:1.0 2201:1.0 2202:1.0 2205:1.0 2236:1.0 2237:1.0 2238:1.0 2273:1.0 2274:1.0 2309:1.0 2381:1.0 2416:1.0 2417:1.0 2451:1.0 2452:1.0 2453:1.0 2486:1.0 2487:1.0 2488:1.0 2489:1.0 2490:1.0 2492:1.0 2493:1.0 2494:1.0 2521:1.0 2522:1.0 2523:1.0 2524:1.0 2525:1.0 2527:1.0 2528:1.0 2529:1.0 2533:1.0 2534:1.0 2557:1.0 2558:1.0 2559:1.0 2560:1.0 2561:1.0 2563:1.0 2564:1.0 2565:1.0 2594:1.0 2595:1.0 2596:1.0 2737:1.0 2738:1.0 2740:1.0 2773:1.0 2776:1.0 2777:1.0 2812:1.0 2813:1.0 2845:1.0 2846:1.0 2847:1.0 2848:1.0 2849:1.0 2851:1.0 2852:1.0 2853:1.0 2857:1.0 2858:1.0 2863:1.0 2864:1.0 2881:1.0 2882:1.0 2883:1.0 2884:1.0 2887:1.0 2888:1.0 2893:1.0 2917:1.0 2918:1.0 2923:1.0 2924:1.0 2929:1.0 2930:1.0 3170:1.0 3171:1.0 3175:1.0 3205:1.0 3206:1.0 3207:1.0 3208:1.0 3211:1.0 3212:1.0 3241:1.0 3242:1.0 3243:1.0 3247:1.0 3248:1.0 3253:1.0 3277:1.0 3278:1.0 3283:1.0 3284:1.0 3313:1.0 3530:1.0 3565:1.0 3566:1.0 3567:1.0 3571:1.0 3572:1.0 3577:1.0 3603:1.0 3604:1.0 3605:1.0 3608:1.0 3609:1.0 3610:1.0 3639:1.0 3640:1.0 3641:1.0 3642:1.0 3645:1.0 3675:1.0 3677:1.0 3678:1.0 3713:1.0 3749:1.0 3961:1.0 3962:1.0 3963:1.0 3964:1.0 3965:1.0 3966:1.0 3967:1.0 3968:1.0 3969:1.0 3998:1.0 3999:1.0 4000:1.0 4001:1.0 4002:1.0 4005:1.0 4037:1.0 4038:1.0 4073:1.0 4109:1.0 4145:1.0 4181:1.0 4249:1.0 4250:1.0 4251:1.0 4255:1.0 4256:1.0 4285:1.0 4286:1.0 4287:1.0 4289:1.0 4291:1.0 4292:1.0 4293:1.0 4321:1.0 4322:1.0 4323:1.0 4324:1.0 4325:1.0 4326:1.0 4327:1.0 4328:1.0 4329:1.0 4330:1.0 4331:1.0 4333:1.0 4334:1.0 4335:1.0 4339:1.0 4340:1.0 4345:1.0 4346:1.0 4352:1.0 4357:1.0 4360:1.0 4361:1.0 4362:1.0 4363:1.0 4364:1.0 4365:1.0 4366:1.0 4367:1.0 4368:1.0 4370:1.0 4371:1.0 4372:1.0 4373:1.0 4375:1.0 4376:1.0 4381:1.0 4382:1.0 4387:1.0 4388:1.0 4578:1.0 4610:1.0 4611:1.0 4614:1.0 4616:1.0 4622:1.0 4645:1.0 4646:1.0 4647:1.0 4650:1.0 4651:1.0 4652:1.0 4657:1.0 4658:1.0 4663:1.0 4664:1.0 4669:1.0 4681:1.0 4682:1.0 4683:1.0 4684:1.0 4687:1.0 4688:1.0 4689:1.0 4693:1.0 4694:1.0 4699:1.0 4700:1.0 4705:1.0 4711:1.0 4717:1.0 4718:1.0 4719:1.0 4720:1.0 4721:1.0 4722:1.0 4723:1.0 4724:1.0 4725:1.0 4726:1.0 4727:1.0 4728:1.0 4729:1.0 4730:1.0 4731:1.0 4732:1.0 4735:1.0 4736:1.0 4741:1.0 4747:1.0 4748:1.0 4975:1.0 4976:1.0 4981:1.0 5005:1.0 5006:1.0 5007:1.0 5008:1.0 5011:1.0 5012:1.0 5017:1.0 5018:1.0 5041:1.0 5042:1.0 5043:1.0 5044:1.0 5045:1.0 5046:1.0 5047:1.0 5048:1.0 5049:1.0 5050:1.0 5053:1.0 5054:1.0 5059:1.0 5077:1.0 5078:1.0 5079:1.0 5080:1.0 5081:1.0 5082:1.0 5083:1.0 5084:1.0 5085:1.0 5086:1.0 5087:1.0 5088:1.0 5089:1.0 5090:1.0 5091:1.0 5093:1.0 5094:1.0 5095:1.0 5096:1.0 5101:1.0 5102:1.0 5113:1.0 5257:1.0 5263:1.0 5269:1.0 5293:1.0 5299:1.0 5330:1.0 5331:1.0 5332:1.0 5335:1.0 5365:1.0 5366:1.0 5367:1.0 5368:1.0 5371:1.0 5372:1.0 5373:1.0 5378:1.0 5402:1.0 5403:1.0 5404:1.0 5405:1.0 5408:1.0 5409:1.0 5410:1.0 5438:1.0 5439:1.0 5440:1.0 5445:1.0 5475:1.0 5727:1.0 5733:1.0 5762:1.0 5763:1.0 5767:1.0 5768:1.0 5769:1.0 6086:1.0 6087:1.0 6091:1.0 6092:1.0 6093:1.0 6122:1.0 6123:1.0 6128:1.0 6129:1.0 6158:1.0 6159:1.0 6160:1.0 6161:1.0 6162:1.0 6164:1.0 6165:1.0 6166:1.0 6167:1.0 6168:1.0 6170:1.0 6197:1.0 6198:1.0 6338:1.0 6339:1.0 6340:1.0 6375:1.0 6376:1.0 6380:1.0 6410:1.0 6411:1.0 6412:1.0 6446:1.0 6447:1.0 6448:1.0 6451:1.0 6452:1.0 6453:1.0 6457:1.0 6481:1.0 6482:1.0 6483:1.0 6484:1.0 6487:1.0 6488:1.0 6489:1.0 6493:1.0 6494:1.0 6500:1.0 6517:1.0 6518:1.0 6519:1.0 6523:1.0 6733:1.0 6734:1.0 6735:1.0 6736:1.0 6770:1.0 6771:1.0 6772:1.0 6775:1.0 6777:1.0 6805:1.0 6806:1.0 6807:1.0 6808:1.0 6809:1.0 6811:1.0 6812:1.0 6813:1.0 6817:1.0 6818:1.0 6823:1.0 6841:1.0 6842:1.0 6843:1.0 6844:1.0 6847:1.0 6848:1.0 6877:1.0 6878:1.0 6879:1.0 6885:1.0 6914:1.0 6986:1.0 6987:1.0 7022:1.0 7059:1.0 7094:1.0 7095:1.0 7130:1.0 7131:1.0 7132:1.0 7136:1.0 7166:1.0 7167:1.0 7168:1.0 7171:1.0 7172:1.0 7202:1.0 7203:1.0 7204:1.0 7207:1.0 7208:1.0 7209:1.0 7210:1.0 7526:1.0 7527:1.0 7532:1.0 7533:1.0 7562:1.0 7563:1.0 7564:1.0 7568:1.0 7569:1.0 7886:1.0 7887:1.0 7888:1.0 7892:1.0 7893:1.0 7922:1.0 7923:1.0 7928:1.0 7933:1.0 8246:1.0 8247:1.0 8248:1.0 8252:1.0 8253:1.0 8258:1.0 8282:1.0 8283:1.0 8287:1.0 8288:1.0 8289:1.0 8293:1.0 8294:1.0 8606:1.0 8607:1.0 8611:1.0 8612:1.0 8613:1.0 8617:1.0 8618:1.0 8642:1.0 8643:1.0 8644:1.0 8647:1.0 8648:1.0 8654:1.0 8966:1.0 8967:1.0 8971:1.0 8972:1.0 8973:1.0 
